0.10277
0.10277
0.10277
0.10277
0.10277
0.110613
0.122378
0.126299
0.130221
0.134142
0.138064
0.141985
0.15375
0.161593
0.165515
0.173358
0.173358
0.173358
0.169436
0.161593
0.157672
0.149829
0.141985
0.138064
0.134142
0.130221
0.126299
0.118456
0.114534
0.106691
0.0949266
0.0870834
0.0713972
0.0557109
0.0439462
0.0321815
0.0361031
0.0478678
0.0596325
0.0674756
0.0713972
0.0674756
0.0596325
0.0478678
0.0321815
0.0204168
0.0125736
0.0243383
0.0439462
0.063554
0.0713972
0.0831619
0.0870834
0.0870834
0.0831619
0.0792403
0.0713972
0.063554
0.0517893
0.0400246
0.0243383
0.0125736
0.000808939
-0.0109558
-0.0109558
-0.0344852
-0.0344852
-0.0344852
-0.0344852
-0.0344852
-0.0344852
-0.0344852
-0.0344852
0.000808939
0.0204168
0.0361031
0.0478678
0.0596325
0.0674756
0.0713972
0.0753187
0.0753187
0.0674756
0.0557109
0.0400246
0.0125736
0.000808939
0.0243383
0.0439462
0.0674756
0.0792403
0.0831619
0.0870834
0.0870834
0.0792403
0.0713972
0.0596325
0.0439462
0.0321815
0.0204168
0.0204168
0.0321815
0.0400246
0.0439462
0.0439462
0.0439462
0.0439462
0.0400246
0.0361031
0.0204168
0.000808939
-0.0109558
-0.0109558
-0.0109558
0.0125736
0.0321815
0.0400246
0.0439462
0.0517893
0.0517893
0.0557109
0.063554
0.0674756
0.0792403
0.0870834
0.091005
0.0949266
0.0949266
0.0949266
0.0870834
0.0792403
0.0713972
0.063554
0.0557109
0.0478678
0.0478678
0.0517893
0.0557109
0.0557109
0.0557109
0.0557109
0.0517893
0.0439462
0.0361031
0.0243383
0.000808939
-0.0344852
-0.0344852
-0.0344852
-0.0109558
0.0125736
0.0204168
0.0321815
0.0361031
0.0400246
0.0321815
0.0243383
0.0125736
-0.0109558
-0.0344852
-0.0344852
-0.0109558
0.0204168
0.0321815
0.0400246
0.0439462
0.0439462
0.0400246
0.0361031
0.0243383
0.0204168
0.0125736
0.000808939
-0.0109558
-0.0109558
-0.0344852
-0.0344852
-0.0344852
-0.0344852
-0.0344852
-0.0344852
-0.0344852
-0.0109558
0.000808939
0.0204168
0.0321815
0.0400246
0.0439462
0.0478678
0.0517893
0.0517893
0.0478678
0.0478678
0.0439462
0.0439462
0.0439462
0.0478678
0.0517893
0.0517893
0.0557109
0.0596325
0.0596325
0.0596325
0.0596325
0.0596325
0.0557109
0.0517893
0.0439462
0.0400246
0.0321815
0.0243383
0.0204168
0.0125736
0.000808939
0.000808939
0.000808939
0.000808939
0.000808939
0.000808939
-0.0109558
-0.0109558
-0.0344852
-0.0344852
-0.0344852
-0.0344852
-0.0344852
-0.0344852
-0.0344852
-0.0344852
-0.0344852
-0.0344852
-0.0344852
-0.0344852
-0.0344852
-0.0344852
-0.0344852
-0.0344852
-0.0344852
-0.0344852
-0.0344852
-0.0344852
-0.0344852
-0.0344852
-0.0344852
-0.0344852
-0.0344852
-0.0344852
-0.0344852
-0.0344852
-0.0344852
-0.0344852
-0.0344852
-0.0344852
-0.0344852
-0.0344852
0.000808939
0.0321815
0.0596325
0.0870834
0.110613
0.134142
0.145907
0.161593
0.169436
0.17728
0.17728
0.17728
0.173358
0.161593
0.15375
0.138064
0.130221
0.134142
0.15375
0.169436
0.185123
0.200809
0.208652
0.220417
0.224338
0.22826
0.22826
0.224338
0.216495
0.208652
0.200809
0.189044
0.185123
0.185123
0.185123
0.189044
0.189044
0.189044
0.185123
0.189044
0.192966
0.200809
0.204731
0.208652
0.208652
0.208652
0.204731
0.192966
0.181201
0.165515
0.145907
0.118456
0.0870834
0.0517893
0.0439462
0.0557109
0.063554
0.0674756
0.0674756
0.0596325
0.0517893
0.0439462
0.0361031
0.0243383
0.0204168
0.000808939
0.000808939
-0.0109558
-0.0344852
-0.0344852
-0.0344852
-0.0109558
0.000808939
0.0243383
0.0361031
0.0439462
0.0439462
0.0439462
0.0439462
0.0361031
0.0243383
0.0204168
0.000808939
-0.0109558
-0.0344852
-0.0344852
-0.0344852
-0.0344852
-0.0344852
-0.0344852
-0.0344852
-0.0344852
-0.0344852
-0.0344852
-0.0344852
-0.0109558
0.000808939
0.0125736
0.0204168
0.0204168
0.0243383
0.0243383
0.0321815
0.0361031
0.0361031
0.0439462
0.0478678
0.0517893
0.0557109
0.0557109
0.0517893
0.0439462
0.0400246
0.0321815
0.0243383
0.0125736
0.0125736
-0.0109558
-0.0109558
-0.0344852
-0.0344852
-0.0344852
-0.0344852
-0.0344852
-0.0344852
-0.0344852
-0.0344852
-0.0109558
0.000808939
0.000808939
0.0125736
0.0204168
0.0321815
0.0321815
0.0361031
0.0321815
0.0243383
0.0125736
0.000808939
-0.0344852
-0.0344852
-0.0344852
-0.0344852
-0.0344852
-0.0344852
-0.0344852
-0.0344852
-0.0344852
-0.0109558
-0.0109558
0.000808939
0.000808939
0.0125736
0.0125736
0.0125736
0.0125736
0.0125736
0.0204168
0.0243383
0.0321815
0.0361031
0.0400246
0.0439462
0.0439462
0.0439462
0.0439462
0.0400246
0.0321815
0.0204168
0.0125736
-0.0109558
-0.0344852
-0.0344852
-0.0344852
-0.0344852
-0.0344852
-0.0344852
-0.0344852
-0.0344852
-0.0344852
-0.0344852
-0.0344852
-0.0344852
-0.0344852
-0.0344852
-0.0344852
-0.0344852
-0.0344852
-0.0344852
-0.0344852
-0.0344852
-0.0344852
-0.0344852
-0.0344852
-0.0109558
0.000808939
0.0125736
0.0243383
0.0361031
0.0439462
0.0517893
0.0557109
0.0596325
0.063554
0.063554
0.063554
0.0596325
0.0557109
0.0478678
0.0361031
0.0125736
-0.0109558
-0.0344852
0.0125736
0.0478678
0.0753187
0.0949266
0.110613
0.122378
0.134142
0.141985
0.145907
0.149829
0.15375
0.15375
0.149829
0.145907
0.141985
0.134142
0.126299
0.114534
0.10277
0.0870834
0.0713972
0.0557109
0.0400246
0.0321815
0.0361031
0.0400246
0.0400246
0.0361031
0.0321815
0.0243383
0.0321815
0.0400246
0.0557109
0.0753187
0.0949266
0.110613
0.122378
0.134142
0.138064
0.145907
0.145907
0.145907
0.141985
0.138064
0.126299
0.110613
0.0792403
0.0243383
0.0321815
0.0831619
0.110613
0.130221
0.138064
0.145907
0.145907
0.145907
0.145907
0.145907
0.145907
0.145907
0.145907
0.145907
0.141985
0.134142
0.122378
0.106691
0.0831619
0.0557109
0.000808939
-0.0344852
-0.0344852
-0.0109558
0.000808939
0.000808939
0.0125736
0.0204168
0.0321815
0.0439462
0.0557109
0.063554
0.0713972
0.0713972
0.0753187
0.0792403
0.0753187
0.0753187
0.0713972
0.063554
0.0517893
0.0361031
0.0243383
0.0321815
0.0517893
0.0674756
0.0713972
0.0713972
0.0557109
0.0204168
-0.0344852
0.0439462
0.091005
0.118456
0.138064
0.15375
0.161593
0.165515
0.169436
0.169436
0.165515
0.161593
0.149829
0.134142
0.114534
0.091005
0.0517893
0.0125736
0.0204168
0.0400246
0.0400246
0.0125736
-0.0109558
0.0557109
0.0988482
0.130221
0.145907
0.157672
0.165515
0.169436
0.165515
0.157672
0.141985
0.118456
0.091005
0.0792403
0.091005
0.0988482
0.0988482
0.0831619
0.0361031
0.0243383
0.0988482
0.138064
0.161593
0.181201
0.189044
0.196887
0.200809
0.200809
0.192966
0.185123
0.17728
0.157672
0.134142
0.10277
0.0400246
-0.0344852
0.063554
0.0949266
0.110613
0.122378
0.126299
0.126299
0.122378
0.118456
0.110613
0.0988482
0.0870834
0.0674756
0.0517893
0.0439462
0.0439462
0.0478678
0.0557109
0.0557109
0.0517893
0.0439462
0.0361031
0.0557109
0.091005
0.122378
0.15375
0.17728
0.196887
0.212574
0.22826
0.240025
0.251789
0.255711
0.259632
0.263554
0.263554
0.259632
0.255711
0.247868
0.236103
0.224338
0.208652
0.189044
0.169436
0.141985
0.114534
0.0792403
0.0439462
0.0125736
0.0125736
0.0204168
0.0243383
0.0243383
0.0243383
0.0243383
0.0204168
0.0125736
0.000808939
-0.0109558
-0.0109558
-0.0344852
-0.0344852
-0.0344852
-0.0344852
-0.0109558
-0.0109558
-0.0109558
0.000808939
0.0125736
0.0243383
0.0400246
0.0557109
0.0713972
0.0870834
0.0988482
0.110613
0.118456
0.122378
0.126299
0.126299
0.126299
0.118456
0.110613
0.0988482
0.0831619
0.0596325
0.0321815
-0.0109558
-0.0344852
-0.0344852
-0.0109558
0.0125736
0.0204168
0.0243383
0.0243383
0.0243383
0.0204168
0.0204168
0.0125736
0.000808939
-0.0109558
-0.0344852
-0.0344852
-0.0344852
-0.0344852
-0.0344852
-0.0344852
-0.0344852
-0.0344852
-0.0344852
-0.0344852
-0.0344852
-0.0109558
-0.0109558
-0.0109558
-0.0109558
-0.0109558
-0.0109558
0.000808939
0.000808939
0.000808939
-0.0109558
-0.0109558
-0.0344852
-0.0344852
-0.0344852
-0.0344852
-0.0344852
-0.0344852
-0.0344852
-0.0109558
-0.0109558
-0.0109558
-0.0109558
-0.0344852
-0.0344852
-0.0344852
-0.0344852
-0.0344852
-0.0344852
-0.0344852
-0.0344852
-0.0344852
-0.0344852
-0.0344852
-0.0344852
-0.0344852
-0.0109558
-0.0344852
-0.0344852
-0.0109558
-0.0344852
-0.0344852
-0.0344852
-0.0344852
-0.0109558
-0.0109558
-0.0109558
0.000808939
0.000808939
0.000808939
0.000808939
0.000808939
0.000808939
0.000808939
0.000808939
0.000808939
-0.0109558
-0.0109558
-0.0344852
-0.0344852
-0.0344852
-0.0344852
-0.0344852
-0.0344852
-0.0344852
-0.0344852
-0.0344852
-0.0344852
-0.0344852
-0.0344852
-0.0344852
-0.0344852
-0.0344852
-0.0344852
-0.0344852
-0.0344852
-0.0344852
-0.0344852
-0.0344852
-0.0344852
-0.0344852
-0.0344852
-0.0344852
-0.0344852
-0.0344852
-0.0344852
-0.0344852
-0.0344852
-0.0344852
-0.0344852
-0.0344852
-0.0344852
-0.0344852
-0.0344852
-0.0344852
-0.0344852
-0.0344852
-0.0344852
-0.0109558
-0.0109558
-0.0109558
-0.0109558
-0.0109558
-0.0109558
-0.0109558
-0.0109558
-0.0109558
-0.0109558
-0.0109558
-0.0109558
-0.0109558
-0.0109558
-0.0109558
0.000808939
0.0204168
0.0439462
0.0674756
0.091005
0.106691
0.122378
0.134142
0.138064
0.141985
0.141985
0.138064
0.130221
0.114534
0.0949266
0.0674756
0.0517893
0.0713972
0.0949266
0.110613
0.122378
0.126299
0.126299
0.126299
0.118456
0.110613
0.0949266
0.0792403
0.0557109
0.0243383
-0.0109558
-0.0344852
-0.0344852
0.000808939
0.0243383
0.0361031
0.0400246
0.0400246
0.0400246
0.0400246
0.0361031
0.0321815
0.0243383
0.0125736
0.000808939
-0.0109558
-0.0109558
-0.0344852
-0.0344852
-0.0344852
-0.0344852
-0.0344852
-0.0344852
-0.0344852
-0.0344852
-0.0344852
-0.0109558
-0.0109558
-0.0344852
-0.0109558
-0.0344852
-0.0344852
-0.0344852
-0.0344852
-0.0344852
-0.0109558
-0.0109558
-0.0109558
-0.0109558
-0.0109558
-0.0109558
-0.0109558
-0.0344852
-0.0344852
-0.0344852
-0.0344852
-0.0344852
-0.0344852
-0.0344852
-0.0344852
-0.0344852
-0.0344852
0.000808939
0.000808939
0.0125736
0.0204168
0.0125736
0.0125736
0.000808939
-0.0109558
-0.0344852
-0.0344852
-0.0344852
-0.0344852
-0.0344852
-0.0344852
-0.0344852
-0.0344852
-0.0344852
-0.0344852
-0.0109558
0.000808939
0.0125736
0.0243383
0.0361031
0.0439462
0.0439462
0.0517893
0.0517893
0.0517893
0.0478678
0.0439462
0.0400246
0.0321815
0.0243383
0.0204168
0.0125736
0.000808939
0.000808939
-0.0109558
-0.0109558
-0.0344852
-0.0344852
-0.0344852
-0.0344852
-0.0344852
-0.0344852
-0.0109558
0.000808939
0.0125736
0.0125736
0.0204168
0.0243383
0.0243383
0.0243383
0.0204168
0.0125736
0.000808939
-0.0109558
-0.0109558
-0.0344852
-0.0344852
-0.0344852
-0.0344852
-0.0344852
-0.0344852
-0.0344852
-0.0344852
-0.0344852
-0.0344852
-0.0344852
-0.0344852
-0.0344852
-0.0344852
-0.0344852
-0.0344852
-0.0344852
-0.0344852
-0.0344852
-0.0344852
-0.0344852
-0.0344852
-0.0344852
-0.0344852
-0.0344852
-0.0344852
-0.0344852
-0.0109558
0.000808939
0.000808939
0.000808939
0.000808939
0.000808939
-0.0109558
-0.0109558
-0.0344852
-0.0344852
-0.0344852
-0.0344852
-0.0344852
-0.0109558
-0.0109558
0.000808939
0.000808939
0.000808939
0.000808939
-0.0109558
-0.0109558
-0.0109558
-0.0109558
-0.0109558
0.000808939
0.0125736
0.0204168
0.0204168
0.0243383
0.0321815
0.0321815
0.0321815
0.0321815
0.0321815
0.0243383
0.0204168
0.000808939
0.000808939
-0.0344852
-0.0344852
-0.0344852
-0.0344852
-0.0344852
-0.0344852
-0.0344852
-0.0109558
-0.0344852
-0.0344852
-0.0344852
-0.0344852
-0.0344852
-0.0344852
-0.0344852
-0.0344852
-0.0344852
-0.0344852
-0.0344852
-0.0344852
-0.0109558
-0.0344852
-0.0109558
-0.0109558
-0.0344852
-0.0344852
-0.0109558
-0.0344852
-0.0344852
-0.0344852
-0.0344852
-0.0344852
-0.0344852
-0.0344852
-0.0344852
-0.0344852
-0.0344852
-0.0344852
-0.0109558
-0.0109558
-0.0109558
-0.0109558
-0.0109558
-0.0109558
-0.0344852
-0.0109558
-0.0109558
-0.0109558
-0.0109558
-0.0109558
-0.0109558
-0.0109558
-0.0109558
-0.0109558
-0.0109558
-0.0344852
-0.0344852
-0.0344852
-0.0344852
-0.0344852
-0.0344852
-0.0344852
-0.0344852
-0.0344852
-0.0344852
-0.0344852
-0.0344852
-0.0344852
-0.0109558
0.000808939
0.0125736
0.0125736
0.0125736
0.0125736
0.0125736
0.0125736
0.0125736
0.0125736
0.0204168
0.0204168
0.0243383
0.0243383
0.0243383
0.0243383
0.0204168
0.0125736
0.000808939
-0.0109558
-0.0344852
-0.0344852
-0.0344852
-0.0344852
-0.0344852
-0.0344852
-0.0344852
-0.0344852
-0.0344852
-0.0344852
-0.0344852
-0.0344852
-0.0344852
-0.0109558
-0.0109558
-0.0109558
0.000808939
0.0125736
0.0125736
0.0125736
0.0204168
0.0204168
0.0204168
0.0204168
0.0204168
0.0125736
0.0125736
0.0125736
0.000808939
-0.0109558
-0.0109558
-0.0109558
-0.0344852
-0.0344852
-0.0344852
-0.0344852
-0.0344852
-0.0344852
-0.0344852
-0.0344852
-0.0344852
-0.0344852
-0.0344852
-0.0344852
-0.0344852
-0.0109558
-0.0109558
-0.0344852
-0.0344852
-0.0344852
-0.0344852
-0.0344852
-0.0344852
-0.0344852
-0.0344852
-0.0344852
-0.0344852
-0.0344852
-0.0344852
-0.0109558
-0.0109558
-0.0109558
-0.0344852
-0.0344852
-0.0344852
-0.0344852
-0.0344852
-0.0344852
-0.0344852
-0.0344852
-0.0344852
-0.0344852
-0.0344852
-0.0344852
-0.0344852
-0.0344852
-0.0344852
-0.0344852
-0.0344852
-0.0344852
-0.0344852
-0.0109558
-0.0109558
-0.0109558
0.000808939
0.0125736
0.0125736
0.0125736
0.0125736
0.000808939
0.000808939
0.000808939
-0.0109558
-0.0109558
-0.0109558
-0.0109558
-0.0109558
0.000808939
0.000808939
0.0125736
0.0204168
0.0204168
0.0204168
0.0204168
0.0204168
0.0125736
0.000808939
-0.0109558
-0.0109558
-0.0109558
0.000808939
0.0125736
0.0204168
0.0243383
0.0321815
0.0321815
0.0321815
0.0321815
0.0243383
0.0243383
0.0204168
0.0125736
0.0125736
0.000808939
0.0125736
0.0125736
0.0125736
0.0125736
0.0125736
0.0125736
0.0125736
0.0125736
0.000808939
0.000808939
0.000808939
0.000808939
-0.0109558
-0.0109558
-0.0109558
-0.0109558
-0.0109558
-0.0109558
-0.0109558
-0.0109558
-0.0109558
-0.0109558
-0.0344852
-0.0344852
-0.0344852
-0.0344852
-0.0344852
-0.0344852
-0.0344852
-0.0344852
-0.0344852
-0.0109558
0.000808939
0.0125736
0.0204168
0.0243383
0.0321815
0.0321815
0.0321815
0.0243383
0.0243383
0.0243383
0.0204168
0.0125736
0.0125736
0.000808939
0.000808939
0.000808939
0.000808939
-0.0109558
-0.0109558
-0.0344852
-0.0344852
-0.0344852
-0.0344852
-0.0344852
-0.0344852
-0.0344852
-0.0344852
-0.0344852
-0.0344852
-0.0344852
-0.0344852
-0.0344852
-0.0344852
-0.0344852
-0.0344852
-0.0109558
-0.0109558
-0.0109558
-0.0109558
-0.0109558
-0.0109558
-0.0109558
-0.0109558
-0.0344852
-0.0344852
-0.0344852
-0.0344852
-0.0344852
-0.0344852
-0.0344852
-0.0109558
-0.0344852
-0.0344852
-0.0344852
-0.0344852
-0.0344852
-0.0109558
-0.0109558
0.000808939
0.0125736
0.0204168
0.0321815
0.0361031
0.0400246
0.0439462
0.0439462
0.0439462
0.0439462
0.0439462
0.0439462
0.0439462
0.0400246
0.0361031
0.0361031
0.0321815
0.0204168
0.0125736
0.000808939
-0.0109558
-0.0109558
-0.0109558
-0.0109558
-0.0109558
-0.0109558
-0.0109558
-0.0109558
-0.0109558
-0.0109558
-0.0109558
-0.0344852
-0.0344852
-0.0344852
-0.0344852
-0.0344852
-0.0344852
-0.0344852
-0.0344852
-0.0344852
-0.0344852
-0.0344852
-0.0344852
-0.0344852
-0.0344852
-0.0109558
-0.0109558
0.000808939
0.000808939
0.000808939
0.000808939
0.000808939
-0.0109558
-0.0109558
-0.0344852
-0.0344852
-0.0344852
-0.0344852
-0.0344852
-0.0344852
-0.0344852
-0.0344852
-0.0344852
-0.0344852
-0.0344852
-0.0344852
-0.0344852
-0.0344852
-0.0344852
-0.0344852
-0.0344852
-0.0344852
-0.0344852
-0.0344852
-0.0344852
-0.0344852
-0.0344852
-0.0109558
-0.0109558
-0.0109558
0.000808939
0.000808939
0.000808939
0.000808939
0.000808939
0.000808939
-0.0109558
-0.0109558
-0.0344852
-0.0344852
-0.0344852
-0.0344852
-0.0344852
-0.0109558
-0.0109558
-0.0109558
-0.0109558
-0.0109558
-0.0109558
-0.0109558
-0.0109558
-0.0109558
-0.0109558
-0.0109558
-0.0109558
-0.0109558
-0.0109558
-0.0109558
0.000808939
0.000808939
-0.0109558
0.000808939
-0.0109558
-0.0109558
-0.0344852
-0.0109558
-0.0344852
-0.0344852
-0.0344852
-0.0344852
-0.0344852
-0.0109558
-0.0109558
0.000808939
-0.0109558
0.000808939
-0.0109558
-0.0109558
-0.0344852
-0.0344852
-0.0344852
-0.0344852
-0.0344852
-0.0344852
-0.0344852
-0.0344852
-0.0109558
0.000808939
0.0125736
0.0125736
0.0204168
0.0204168
0.0204168
0.0125736
0.000808939
-0.0109558
-0.0344852
-0.0344852
-0.0344852
-0.0344852
-0.0109558
0.000808939
0.0125736
0.0125736
0.0204168
0.0204168
0.0204168
0.0204168
0.0125736
0.0125736
0.0125736
0.0125736
0.0125736
0.0125736
0.0125736
0.0125736
0.0125736
0.0125736
0.000808939
0.000808939
-0.0109558
-0.0344852
-0.0344852
-0.0344852
-0.0344852
-0.0109558
-0.0109558
-0.0109558
-0.0109558
-0.0109558
0.000808939
-0.0109558
-0.0109558
-0.0109558
-0.0109558
0.000808939
-0.0109558
-0.0109558
-0.0109558
-0.0109558
-0.0344852
-0.0344852
-0.0344852
-0.0344852
-0.0344852
-0.0344852
-0.0344852
-0.0344852
-0.0344852
-0.0344852
-0.0344852
-0.0344852
-0.0344852
-0.0344852
-0.0344852
-0.0344852
-0.0344852
-0.0344852
-0.0344852
-0.0344852
-0.0344852
-0.0109558
-0.0109558
-0.0109558
-0.0109558
-0.0109558
-0.0109558
-0.0109558
-0.0109558
0.000808939
0.000808939
0.0125736
0.0125736
0.0125736
0.0125736
0.0125736
0.0204168
0.0125736
0.000808939
0.000808939
-0.0109558
-0.0344852
-0.0344852
-0.0344852
-0.0344852
-0.0344852
-0.0344852
-0.0344852
-0.0344852
-0.0344852
-0.0344852
-0.0344852
-0.0344852
-0.0344852
-0.0344852
-0.0344852
-0.0344852
-0.0344852
-0.0344852
-0.0344852
-0.0344852
-0.0109558
-0.0109558
0.000808939
0.0125736
0.0204168
0.0243383
0.0321815
0.0361031
0.0400246
0.0439462
0.0439462
0.0478678
0.0478678
0.0478678
0.0478678
0.0439462
0.0400246
0.0321815
0.0243383
0.0243383
0.0204168
0.0125736
0.000808939
-0.0109558
-0.0109558
-0.0344852
-0.0344852
-0.0344852
-0.0344852
-0.0344852
-0.0344852
-0.0344852
-0.0109558
-0.0109558
-0.0109558
-0.0109558
-0.0344852
-0.0344852
-0.0344852
-0.0344852
-0.0344852
-0.0344852
-0.0344852
-0.0344852
-0.0344852
-0.0344852
-0.0344852
-0.0344852
-0.0344852
-0.0344852
-0.0344852
-0.0344852
-0.0344852
-0.0344852
-0.0344852
-0.0344852
-0.0344852
-0.0344852
-0.0344852
-0.0344852
-0.0109558
-0.0109558
0.000808939
0.0125736
0.0204168
0.0243383
0.0243383
0.0243383
0.0243383
0.0204168
0.0204168
0.0125736
0.000808939
-0.0344852
-0.0344852
-0.0344852
-0.0344852
-0.0344852
-0.0344852
-0.0344852
-0.0344852
-0.0344852
-0.0344852
-0.0344852
-0.0344852
-0.0344852
-0.0344852
-0.0344852
-0.0344852
-0.0344852
-0.0344852
-0.0344852
-0.0344852
-0.0344852
-0.0344852
-0.0344852
-0.0344852
-0.0344852
-0.0344852
-0.0344852
-0.0344852
-0.0344852
-0.0344852
-0.0344852
-0.0344852
-0.0344852
-0.0344852
-0.0344852
-0.0344852
-0.0344852
-0.0344852
-0.0109558
-0.0109558
0.000808939
0.000808939
-0.0109558
-0.0109558
-0.0109558
-0.0109558
-0.0109558
-0.0109558
-0.0109558
-0.0109558
0.000808939
0.0125736
0.0204168
0.0243383
0.0361031
0.0439462
0.0439462
0.0478678
0.0478678
0.0439462
0.0439462
0.0400246
0.0321815
0.0243383
0.0204168
0.0125736
0.0125736
0.0125736
0.0125736
0.0125736
0.0125736
0.0125736
0.0125736
0.000808939
0.000808939
0.000808939
0.000808939
0.000808939
0.000808939
0.000808939
0.000808939
0.000808939
0.000808939
0.000808939
-0.0109558
-0.0109558
-0.0344852
-0.0344852
-0.0344852
-0.0344852
-0.0344852
-0.0344852
-0.0344852
-0.0344852
-0.0109558
-0.0109558
-0.0109558
0.000808939
-0.0109558
0.000808939
0.000808939
0.000808939
0.000808939
-0.0109558
-0.0109558
-0.0109558
-0.0109558
-0.0109558
-0.0109558
0.000808939
0.000808939
0.000808939
-0.0109558
-0.0344852
-0.0344852
-0.0344852
-0.0344852
-0.0344852
-0.0344852
-0.0344852
-0.0344852
-0.0344852
-0.0344852
-0.0109558
-0.0109558
0.000808939
0.000808939
0.000808939
0.000808939
0.0125736
0.000808939
0.000808939
-0.0109558
-0.0109558
-0.0109558
-0.0344852
-0.0344852
-0.0344852
-0.0344852
-0.0344852
-0.0344852
-0.0344852
-0.0344852
-0.0344852
-0.0344852
-0.0344852
-0.0344852
-0.0344852
-0.0344852
-0.0344852
-0.0344852
-0.0344852
-0.0344852
-0.0344852
-0.0344852
-0.0109558
-0.0344852
-0.0344852
-0.0109558
-0.0344852
-0.0344852
-0.0344852
-0.0344852
-0.0344852
-0.0344852
-0.0109558
-0.0109558
0.000808939
0.0125736
0.0204168
0.0204168
0.0204168
0.0125736
0.0125736
0.000808939
-0.0109558
-0.0344852
-0.0344852
-0.0344852
-0.0344852
-0.0344852
-0.0344852
-0.0109558
0.000808939
0.0125736
0.0204168
0.0321815
0.0361031
0.0361031
0.0361031
0.0321815
0.0243383
0.0125736
0.000808939
-0.0109558
-0.0344852
-0.0344852
-0.0344852
0.000808939
0.0125736
0.0204168
0.0243383
0.0321815
0.0321815
0.0243383
0.0243383
0.0204168
0.0204168
0.0125736
0.0125736
0.0125736
0.000808939
0.000808939
0.000808939
0.000808939
0.0125736
0.000808939
0.000808939
-0.0109558
-0.0109558
-0.0344852
-0.0344852
-0.0344852
-0.0344852
-0.0109558
-0.0109558
0.000808939
0.0125736
0.0125736
0.0125736
0.0125736
0.000808939
-0.0109558
-0.0109558
-0.0344852
-0.0344852
-0.0344852
-0.0344852
-0.0344852
-0.0344852
-0.0109558
-0.0109558
0.000808939
0.000808939
0.000808939
0.000808939
0.000808939
0.000808939
0.000808939
-0.0109558
-0.0109558
-0.0109558
-0.0109558
0.000808939
0.000808939
0.000808939
0.000808939
-0.0109558
-0.0109558
-0.0109558
-0.0109558
-0.0109558
0.000808939
0.000808939
0.000808939
0.000808939
0.000808939
0.000808939
0.000808939
-0.0109558
-0.0344852
-0.0344852
-0.0344852
-0.0344852
-0.0344852
-0.0344852
-0.0344852
-0.0344852
-0.0344852
-0.0344852
-0.0344852
-0.0109558
-0.0109558
0.000808939
0.0125736
0.0204168
0.0243383
0.0321815
0.0361031
0.0400246
0.0439462
0.0439462
0.0400246
0.0400246
0.0361031
0.0321815
0.0321815
0.0243383
0.0204168
0.0204168
0.0204168
0.0204168
0.0243383
0.0321815
0.0321815
0.0321815
0.0321815
0.0243383
0.0204168
0.0125736
0.000808939
-0.0109558
-0.0344852
-0.0344852
-0.0344852
-0.0344852
-0.0344852
-0.0344852
-0.0344852
-0.0344852
-0.0344852
-0.0344852
-0.0344852
-0.0344852
-0.0344852
-0.0344852
-0.0344852
-0.0344852
-0.0344852
-0.0344852
-0.0344852
-0.0109558
-0.0109558
-0.0109558
-0.0109558
-0.0109558
-0.0109558
-0.0109558
-0.0344852
-0.0344852
-0.0344852
-0.0344852
-0.0344852
-0.0344852
-0.0344852
-0.0344852
-0.0344852
-0.0109558
0.0125736
0.0204168
0.0321815
0.0400246
0.0439462
0.0439462
0.0439462
0.0400246
0.0321815
0.0243383
0.0125736
0.000808939
-0.0109558
-0.0344852
-0.0344852
-0.0344852
-0.0344852
-0.0344852
-0.0344852
-0.0344852
-0.0344852
-0.0344852
-0.0344852
-0.0344852
-0.0344852
-0.0344852
-0.0344852
-0.0109558
-0.0109558
-0.0109558
0.000808939
0.000808939
0.000808939
0.000808939
-0.0109558
-0.0109558
-0.0109558
-0.0109558
0.0125736
0.0204168
0.0243383
0.0361031
0.0400246
0.0439462
0.0439462
0.0439462
0.0439462
0.0400246
0.0361031
0.0243383
0.0125736
0.000808939
-0.0344852
-0.0344852
-0.0344852
-0.0344852
-0.0109558
0.000808939
0.0204168
0.0243383
0.0321815
0.0321815
0.0321815
0.0243383
0.0243383
0.0204168
0.0125736
0.000808939
-0.0109558
-0.0109558
-0.0109558
-0.0109558
-0.0109558
-0.0109558
0.000808939
0.0125736
0.0204168
0.0204168
0.0243383
0.0243383
0.0243383
0.0204168
0.0204168
0.0125736
0.000808939
-0.0109558
-0.0344852
-0.0344852
-0.0344852
-0.0344852
-0.0344852
-0.0344852
-0.0344852
-0.0344852
-0.0344852
-0.0344852
-0.0344852
-0.0109558
-0.0344852
-0.0344852
-0.0344852
-0.0344852
-0.0344852
-0.0344852
-0.0344852
-0.0344852
-0.0344852
-0.0344852
-0.0344852
-0.0344852
-0.0344852
-0.0344852
-0.0344852
-0.0344852
-0.0344852
-0.0344852
-0.0344852
-0.0344852
-0.0344852
-0.0344852
-0.0344852
-0.0344852
-0.0344852
-0.0344852
-0.0344852
-0.0344852
-0.0344852
-0.0344852
-0.0344852
-0.0344852
-0.0109558
-0.0109558
-0.0109558
-0.0109558
0.000808939
0.000808939
0.000808939
0.000808939
0.000808939
-0.0109558
-0.0344852
-0.0344852
-0.0344852
-0.0344852
-0.0344852
-0.0344852
-0.0109558
0.000808939
0.0125736
0.0204168
0.0204168
0.0243383
0.0243383
0.0243383
0.0243383
0.0243383
0.0204168
0.0204168
0.0125736
0.000808939
0.000808939
0.000808939
-0.0109558
-0.0109558
-0.0109558
-0.0109558
-0.0344852
-0.0344852
-0.0344852
-0.0344852
-0.0344852
-0.0109558
-0.0109558
0.000808939
0.0125736
0.0204168
0.0204168
0.0243383
0.0243383
0.0243383
0.0204168
0.0125736
0.000808939
-0.0109558
-0.0109558
-0.0109558
-0.0344852
-0.0344852
-0.0344852
-0.0344852
-0.0344852
-0.0344852
-0.0344852
-0.0344852
-0.0344852
-0.0344852
-0.0344852
-0.0344852
-0.0344852
-0.0344852
-0.0344852
-0.0109558
0.000808939
0.000808939
0.0125736
0.0204168
0.0204168
0.0243383
0.0243383
0.0243383
0.0243383
0.0243383
0.0204168
0.0125736
0.0125736
0.000808939
0.000808939
0.000808939
0.000808939
0.000808939
0.000808939
0.000808939
0.000808939
0.0125736
0.0204168
0.0243383
0.0321815
0.0321815
0.0321815
0.0243383
0.0204168
0.0125736
0.000808939
-0.0344852
-0.0344852
-0.0344852
-0.0344852
-0.0344852
-0.0344852
-0.0109558
-0.0109558
0.000808939
0.000808939
0.0125736
0.0125736
0.0125736
0.0125736
0.000808939
-0.0109558
-0.0109558
-0.0109558
-0.0344852
-0.0344852
-0.0344852
-0.0344852
-0.0344852
-0.0344852
-0.0344852
-0.0344852
-0.0344852
-0.0344852
-0.0344852
-0.0344852
-0.0344852
-0.0344852
-0.0344852
-0.0344852
-0.0344852
-0.0344852
-0.0344852
-0.0109558
-0.0109558
-0.0109558
-0.0109558
-0.0344852
-0.0344852
-0.0344852
-0.0344852
-0.0344852
-0.0344852
-0.0344852
-0.0344852
-0.0344852
-0.0344852
-0.0109558
-0.0109558
-0.0109558
-0.0109558
-0.0109558
-0.0109558
-0.0109558
-0.0344852
-0.0344852
-0.0344852
-0.0344852
-0.0344852
-0.0344852
-0.0344852
-0.0344852
-0.0344852
-0.0344852
-0.0344852
-0.0344852
-0.0344852
-0.0344852
-0.0344852
-0.0344852
-0.0344852
-0.0344852
-0.0344852
-0.0344852
-0.0344852
-0.0344852
-0.0344852
-0.0344852
-0.0344852
-0.0344852
-0.0344852
-0.0344852
-0.0344852
-0.0344852
-0.0109558
-0.0109558
0.000808939
0.000808939
0.0125736
0.0125736
0.0125736
0.0125736
0.000808939
0.000808939
-0.0109558
-0.0344852
-0.0344852
-0.0344852
-0.0344852
-0.0344852
-0.0344852
-0.0344852
-0.0344852
-0.0344852
-0.0344852
-0.0344852
-0.0344852
-0.0344852
-0.0344852
-0.0344852
-0.0344852
-0.0344852
-0.0344852
-0.0109558
-0.0109558
-0.0109558
-0.0109558
0.000808939
0.000808939
0.0125736
0.0125736
0.0125736
0.000808939
0.000808939
-0.0109558
-0.0344852
-0.0344852
-0.0344852
-0.0344852
-0.0344852
-0.0344852
-0.0344852
-0.0344852
-0.0344852
-0.0344852
-0.0344852
-0.0344852
-0.0109558
-0.0109558
0.000808939
0.000808939
0.0125736
0.0125736
0.0125736
0.0125736
0.000808939
0.000808939
0.000808939
-0.0109558
-0.0344852
-0.0344852
-0.0344852
-0.0344852
-0.0344852
-0.0344852
-0.0344852
-0.0109558
-0.0344852
-0.0109558
-0.0344852
-0.0344852
-0.0344852
-0.0344852
-0.0344852
-0.0344852
-0.0344852
-0.0344852
-0.0344852
-0.0344852
-0.0344852
-0.0344852
-0.0344852
-0.0344852
-0.0344852
-0.0344852
-0.0344852
-0.0344852
-0.0344852
-0.0344852
-0.0344852
-0.0344852
-0.0344852
-0.0344852
-0.0344852
-0.0344852
-0.0344852
-0.0344852
-0.0344852
-0.0344852
-0.0344852
-0.0344852
-0.0109558
-0.0109558
-0.0109558
0.000808939
0.000808939
0.000808939
0.0125736
0.0125736
0.000808939
0.000808939
-0.0109558
-0.0344852
-0.0344852
-0.0344852
-0.0344852
-0.0344852
-0.0109558
-0.0109558
-0.0109558
-0.0109558
0.000808939
0.000808939
0.000808939
-0.0109558
0.000808939
-0.0109558
-0.0109558
-0.0109558
-0.0344852
-0.0344852
-0.0344852
-0.0344852
-0.0344852
-0.0344852
-0.0344852
-0.0344852
-0.0344852
-0.0344852
-0.0344852
-0.0344852
-0.0344852
-0.0344852
-0.0344852
-0.0109558
-0.0109558
-0.0109558
-0.0109558
-0.0109558
-0.0109558
-0.0344852
-0.0344852
-0.0344852
-0.0344852
-0.0344852
-0.0344852
-0.0344852
-0.0344852
-0.0344852
-0.0344852
-0.0344852
-0.0344852
-0.0109558
-0.0109558
0.000808939
0.000808939
0.000808939
0.0125736
0.000808939
0.000808939
-0.0109558
-0.0109558
-0.0344852
-0.0344852
-0.0344852
-0.0344852
-0.0344852
-0.0344852
-0.0344852
-0.0344852
-0.0344852
-0.0344852
-0.0344852
-0.0344852
-0.0344852
-0.0344852
-0.0344852
-0.0344852
-0.0344852
-0.0344852
-0.0344852
-0.0344852
-0.0344852
-0.0344852
-0.0344852
-0.0344852
-0.0344852
-0.0344852
-0.0344852
-0.0344852
-0.0344852
-0.0344852
-0.0344852
-0.0344852
-0.0344852
-0.0344852
-0.0344852
-0.0344852
-0.0344852
-0.0344852
-0.0344852
-0.0344852
-0.0344852
-0.0109558
-0.0109558
0.000808939
0.000808939
0.000808939
0.000808939
0.000808939
-0.0109558
-0.0109558
-0.0344852
-0.0344852
-0.0344852
-0.0344852
-0.0344852
-0.0344852
-0.0344852
-0.0344852
-0.0344852
-0.0344852
-0.0344852
-0.0344852
-0.0344852
-0.0344852
-0.0344852
-0.0344852
-0.0344852
-0.0344852
-0.0344852
-0.0344852
-0.0344852
-0.0344852
-0.0109558
-0.0109558
-0.0109558
-0.0109558
0.000808939
0.0125736
0.0125736
0.0204168
0.0243383
0.0243383
0.0243383
0.0204168
0.0125736
0.000808939
-0.0109558
-0.0344852
-0.0344852
-0.0344852
-0.0344852
-0.0344852
-0.0344852
-0.0344852
-0.0344852
-0.0344852
-0.0344852
-0.0344852
-0.0344852
-0.0344852
-0.0344852
-0.0344852
-0.0344852
-0.0344852
-0.0344852
-0.0344852
-0.0344852
-0.0344852
-0.0344852
-0.0344852
-0.0344852
-0.0344852
-0.0344852
-0.0109558
-0.0109558
-0.0109558
-0.0109558
-0.0109558
-0.0109558
-0.0109558
-0.0109558
-0.0109558
-0.0344852
-0.0109558
-0.0109558
-0.0109558
-0.0109558
0.000808939
0.000808939
0.000808939
0.000808939
0.000808939
-0.0109558
-0.0109558
-0.0109558
-0.0344852
-0.0344852
-0.0344852
-0.0344852
-0.0344852
-0.0344852
-0.0344852
-0.0344852
-0.0344852
-0.0344852
-0.0344852
-0.0344852
-0.0344852
-0.0344852
-0.0344852
-0.0344852
-0.0344852
-0.0344852
-0.0344852
-0.0344852
-0.0344852
-0.0344852
-0.0344852
-0.0344852
-0.0344852
-0.0344852
-0.0344852
-0.0344852
-0.0344852
-0.0344852
-0.0344852
-0.0344852
-0.0344852
-0.0344852
-0.0344852
-0.0344852
-0.0344852
-0.0344852
-0.0344852
-0.0344852
-0.0344852
-0.0344852
-0.0344852
-0.0344852
-0.0344852
-0.0344852
-0.0344852
-0.0344852
-0.0109558
-0.0109558
-0.0109558
0.000808939
0.000808939
-0.0109558
0.000808939
-0.0109558
-0.0109558
-0.0109558
-0.0109558
-0.0109558
-0.0109558
-0.0109558
-0.0109558
-0.0344852
-0.0344852
-0.0344852
-0.0344852
-0.0344852
-0.0344852
-0.0344852
-0.0109558
-0.0109558
0.000808939
0.0125736
0.0204168
0.0204168
0.0204168
0.0125736
0.000808939
0.000808939
-0.0109558
-0.0109558
-0.0109558
-0.0344852
-0.0344852
-0.0344852
-0.0344852
-0.0344852
-0.0344852
-0.0344852
-0.0344852
-0.0344852
-0.0344852
-0.0344852
-0.0344852
-0.0344852
-0.0344852
-0.0109558
-0.0109558
-0.0109558
0.000808939
0.000808939
0.000808939
0.000808939
0.000808939
0.000808939
0.000808939
0.000808939
0.000808939
0.000808939
0.0125736
0.000808939
0.0125736
0.0125736
0.0204168
0.0204168
0.0204168
0.0243383
0.0243383
0.0204168
0.0243383
0.0204168
0.0204168
0.0204168
0.0204168
0.0204168
0.0243383
0.0204168
0.0204168
0.0243383
0.0204168
0.0204168
0.0204168
0.0204168
0.0125736
0.000808939
-0.0109558
-0.0109558
-0.0344852
-0.0344852
-0.0344852
-0.0344852
-0.0344852
-0.0344852
-0.0109558
-0.0344852
-0.0344852
-0.0344852
-0.0344852
-0.0344852
-0.0344852
-0.0109558
-0.0109558
-0.0109558
-0.0109558
-0.0109558
-0.0109558
-0.0109558
-0.0344852
-0.0344852
-0.0344852
-0.0344852
-0.0344852
-0.0344852
-0.0344852
-0.0344852
-0.0344852
-0.0109558
-0.0344852
-0.0109558
-0.0344852
-0.0344852
-0.0344852
-0.0344852
-0.0344852
-0.0344852
-0.0344852
-0.0344852
-0.0344852
-0.0344852
-0.0344852
-0.0109558
-0.0109558
0.000808939
0.000808939
0.000808939
0.000808939
0.000808939
-0.0109558
-0.0109558
-0.0344852
-0.0344852
-0.0344852
-0.0344852
-0.0344852
-0.0344852
-0.0344852
-0.0344852
-0.0344852
-0.0109558
-0.0109558
-0.0109558
0.000808939
0.000808939
0.000808939
0.000808939
-0.0109558
-0.0344852
-0.0344852
-0.0344852
-0.0344852
-0.0344852
-0.0109558
-0.0109558
-0.0109558
-0.0109558
-0.0109558
-0.0109558
-0.0109558
-0.0344852
-0.0344852
-0.0344852
-0.0344852
-0.0344852
-0.0344852
-0.0344852
-0.0344852
-0.0344852
-0.0344852
-0.0344852
-0.0344852
-0.0344852
-0.0344852
-0.0344852
-0.0344852
-0.0344852
-0.0344852
-0.0344852
-0.0344852
-0.0344852
-0.0344852
-0.0344852
-0.0344852
-0.0344852
-0.0344852
-0.0344852
-0.0344852
-0.0344852
-0.0344852
-0.0344852
-0.0344852
-0.0344852
-0.0344852
-0.0344852
-0.0344852
-0.0344852
-0.0344852
-0.0344852
-0.0344852
-0.0344852
-0.0344852
-0.0344852
-0.0109558
0.000808939
0.0125736
0.0204168
0.0243383
0.0243383
0.0243383
0.0243383
0.0243383
0.0243383
0.0243383
0.0204168
0.0204168
0.0125736
0.0125736
0.0125736
0.000808939
0.000808939
0.000808939
0.000808939
0.0125736
0.0125736
0.0125736
0.000808939
0.000808939
-0.0109558
-0.0109558
-0.0344852
-0.0344852
-0.0344852
-0.0344852
-0.0344852
-0.0344852
-0.0344852
-0.0344852
-0.0109558
-0.0109558
0.000808939
-0.0109558
-0.0109558
-0.0109558
-0.0344852
-0.0344852
-0.0344852
-0.0344852
-0.0344852
-0.0344852
-0.0344852
-0.0109558
0.000808939
0.0125736
0.0125736
0.0125736
0.0125736
0.000808939
-0.0109558
-0.0109558
-0.0344852
-0.0344852
-0.0344852
-0.0344852
-0.0344852
-0.0344852
-0.0344852
-0.0344852
-0.0344852
-0.0109558
-0.0109558
0.000808939
0.000808939
0.0125736
0.0125736
0.0125736
0.0125736
0.0125736
0.0125736
0.0125736
0.000808939
0.000808939
0.000808939
0.000808939
0.000808939
0.000808939
0.000808939
0.000808939
0.000808939
0.000808939
-0.0109558
-0.0109558
-0.0109558
-0.0109558
-0.0109558
0.000808939
0.000808939
0.0125736
0.0204168
0.0204168
0.0204168
0.0204168
0.0204168
0.0204168
0.0125736
0.0125736
0.0125736
0.0204168
0.0125736
0.0125736
0.0125736
0.000808939
0.000808939
-0.0109558
-0.0109558
-0.0109558
-0.0344852
-0.0344852
-0.0344852
-0.0344852
-0.0344852
-0.0109558
-0.0109558
0.000808939
0.0204168
0.0243383
0.0321815
0.0361031
0.0361031
0.0321815
0.0243383
0.0204168
0.0125736
0.000808939
-0.0109558
-0.0109558
-0.0344852
-0.0109558
-0.0344852
-0.0344852
-0.0344852
-0.0344852
-0.0344852
-0.0344852
-0.0344852
-0.0344852
-0.0344852
-0.0344852
-0.0344852
-0.0344852
-0.0344852
-0.0344852
-0.0344852
-0.0344852
-0.0344852
-0.0344852
-0.0344852
-0.0344852
-0.0344852
-0.0344852
-0.0344852
-0.0344852
-0.0344852
-0.0109558
0.000808939
0.000808939
0.0125736
0.0125736
0.0125736
0.0125736
0.0125736
0.0204168
0.0204168
0.0125736
0.0125736
0.0125736
0.000808939
-0.0109558
-0.0344852
-0.0344852
-0.0344852
-0.0344852
-0.0344852
-0.0344852
-0.0344852
-0.0344852
-0.0344852
-0.0344852
-0.0344852
-0.0344852
-0.0344852
-0.0344852
-0.0344852
-0.0344852
-0.0344852
-0.0344852
-0.0344852
-0.0344852
-0.0344852
-0.0344852
-0.0344852
-0.0344852
-0.0344852
-0.0344852
-0.0344852
-0.0344852
-0.0344852
-0.0344852
-0.0344852
-0.0344852
-0.0344852
-0.0344852
-0.0344852
-0.0344852
-0.0344852
-0.0344852
-0.0344852
-0.0344852
-0.0344852
-0.0344852
-0.0344852
-0.0344852
-0.0344852
-0.0344852
-0.0344852
-0.0344852
-0.0344852
-0.0344852
-0.0344852
-0.0344852
-0.0344852
-0.0344852
-0.0344852
-0.0344852
-0.0344852
-0.0344852
-0.0109558
-0.0109558
-0.0109558
-0.0109558
-0.0109558
-0.0109558
-0.0109558
-0.0344852
-0.0344852
-0.0344852
-0.0344852
-0.0109558
-0.0109558
-0.0109558
-0.0109558
-0.0109558
-0.0109558
-0.0344852
-0.0344852
-0.0344852
-0.0344852
-0.0344852
-0.0344852
-0.0344852
-0.0344852
-0.0344852
-0.0344852
-0.0344852
-0.0344852
-0.0344852
-0.0344852
-0.0344852
-0.0344852
-0.0344852
-0.0344852
-0.0109558
-0.0344852
-0.0109558
-0.0109558
-0.0344852
-0.0344852
-0.0344852
-0.0344852
-0.0344852
-0.0344852
-0.0344852
-0.0344852
-0.0344852
-0.0344852
-0.0344852
-0.0344852
-0.0344852
-0.0109558
-0.0109558
-0.0109558
0.000808939
0.000808939
0.000808939
0.000808939
0.000808939
0.000808939
0.000808939
0.000808939
0.000808939
0.000808939
0.000808939
0.000808939
0.000808939
0.000808939
0.000808939
0.000808939
0.0125736
0.0125736
0.0204168
0.0204168
0.0243383
0.0321815
0.0361031
0.0400246
0.0439462
0.0439462
0.0439462
0.0439462
0.0439462
0.0439462
0.0400246
0.0361031
0.0321815
0.0243383
0.0204168
0.000808939
0.000808939
-0.0109558
-0.0109558
-0.0344852
-0.0344852
-0.0344852
-0.0344852
-0.0344852
-0.0344852
-0.0344852
-0.0344852
-0.0344852
-0.0109558
-0.0109558
0.000808939
0.000808939
0.000808939
0.000808939
0.000808939
0.000808939
0.000808939
-0.0109558
-0.0109558
-0.0109558
-0.0344852
-0.0344852
-0.0344852
-0.0344852
-0.0344852
-0.0344852
-0.0344852
-0.0344852
-0.0344852
-0.0344852
-0.0109558
-0.0109558
0.000808939
0.0125736
0.0204168
0.0243383
0.0321815
0.0321815
0.0243383
0.0243383
0.0125736
0.000808939
-0.0109558
-0.0344852
-0.0344852
-0.0344852
-0.0344852
-0.0344852
-0.0344852
-0.0344852
-0.0344852
-0.0344852
-0.0344852
-0.0344852
-0.0344852
-0.0344852
-0.0344852
-0.0344852
-0.0344852
-0.0344852
-0.0344852
-0.0344852
-0.0344852
-0.0344852
-0.0344852
-0.0344852
-0.0344852
-0.0344852
-0.0344852
-0.0344852
-0.0344852
-0.0344852
-0.0344852
-0.0344852
-0.0344852
-0.0344852
-0.0344852
-0.0344852
-0.0344852
-0.0344852
-0.0109558
-0.0109558
-0.0109558
-0.0109558
-0.0109558
-0.0109558
-0.0109558
-0.0109558
-0.0109558
-0.0109558
-0.0109558
-0.0109558
0.000808939
0.000808939
0.000808939
0.0125736
0.0204168
0.0204168
0.0125736
0.0125736
0.000808939
0.000808939
-0.0109558
-0.0344852
-0.0344852
-0.0344852
-0.0344852
-0.0344852
-0.0344852
-0.0344852
-0.0109558
-0.0109558
-0.0109558
-0.0109558
0.000808939
0.000808939
0.000808939
0.000808939
0.000808939
-0.0109558
-0.0109558
-0.0109558
-0.0109558
-0.0109558
-0.0109558
-0.0109558
-0.0344852
-0.0344852
-0.0344852
-0.0344852
-0.0344852
-0.0344852
-0.0344852
-0.0109558
-0.0109558
0.000808939
0.0125736
0.0125736
0.0125736
0.0125736
0.0125736
0.0125736
0.000808939
0.000808939
-0.0109558
-0.0344852
-0.0344852
-0.0109558
-0.0109558
0.000808939
0.0125736
0.0125736
0.0125736
0.0125736
0.0125736
0.000808939
0.000808939
-0.0109558
-0.0344852
-0.0344852
-0.0344852
-0.0344852
-0.0344852
-0.0344852
-0.0344852
-0.0344852
-0.0344852
-0.0344852
-0.0344852
-0.0344852
-0.0344852
-0.0344852
-0.0344852
-0.0344852
-0.0344852
-0.0344852
-0.0344852
-0.0344852
-0.0344852
-0.0344852
-0.0344852
-0.0344852
-0.0344852
-0.0344852
-0.0344852
-0.0344852
-0.0344852
-0.0344852
-0.0344852
-0.0344852
-0.0344852
-0.0109558
0.000808939
0.0125736
0.0204168
0.0243383
0.0321815
0.0321815
0.0321815
0.0243383
0.0243383
0.0243383
0.0204168
0.0204168
0.0204168
0.0125736
0.000808939
0.000808939
-0.0109558
-0.0344852
-0.0344852
-0.0344852
-0.0344852
-0.0344852
-0.0344852
-0.0344852
-0.0344852
-0.0344852
-0.0344852
-0.0344852
-0.0344852
-0.0344852
-0.0344852
-0.0344852
-0.0344852
-0.0344852
-0.0344852
-0.0344852
-0.0344852
-0.0344852
-0.0344852
-0.0344852
-0.0344852
-0.0344852
-0.0109558
-0.0109558
0.000808939
0.000808939
0.000808939
0.000808939
-0.0109558
-0.0109558
-0.0344852
-0.0344852
-0.0344852
-0.0344852
-0.0344852
-0.0109558
0.000808939
0.000808939
0.000808939
-0.0109558
-0.0109558
-0.0344852
-0.0344852
-0.0344852
-0.0344852
-0.0344852
-0.0344852
-0.0344852
-0.0344852
-0.0109558
-0.0109558
-0.0109558
-0.0109558
-0.0109558
-0.0109558
-0.0109558
-0.0344852
-0.0344852
-0.0344852
-0.0344852
-0.0344852
-0.0344852
-0.0344852
-0.0344852
-0.0344852
-0.0344852
-0.0344852
-0.0344852
-0.0344852
-0.0344852
-0.0344852
-0.0344852
-0.0344852
-0.0344852
-0.0344852
-0.0344852
-0.0344852
-0.0344852
-0.0344852
-0.0344852
-0.0344852
-0.0344852
-0.0344852
-0.0344852
-0.0344852
-0.0344852
-0.0344852
-0.0344852
-0.0344852
-0.0344852
-0.0344852
-0.0344852
-0.0344852
-0.0344852
-0.0344852
-0.0344852
-0.0344852
-0.0344852
-0.0344852
-0.0109558
-0.0109558
-0.0109558
-0.0109558
-0.0109558
-0.0344852
-0.0109558
-0.0344852
-0.0344852
-0.0344852
-0.0344852
-0.0344852
-0.0344852
-0.0344852
-0.0344852
-0.0344852
-0.0344852
-0.0344852
-0.0344852
-0.0344852
-0.0344852
-0.0344852
-0.0344852
-0.0344852
-0.0344852
-0.0344852
-0.0344852
-0.0344852
-0.0109558
0.000808939
0.0204168
0.0243383
0.0321815
0.0361031
0.0361031
0.0361031
0.0361031
0.0361031
0.0321815
0.0243383
0.0204168
0.0125736
0.0125736
0.000808939
0.000808939
-0.0109558
-0.0109558
-0.0109558
-0.0344852
-0.0344852
-0.0344852
-0.0344852
-0.0344852
-0.0344852
-0.0344852
-0.0344852
-0.0344852
-0.0344852
-0.0344852
-0.0344852
-0.0344852
-0.0344852
-0.0344852
-0.0109558
-0.0109558
0.000808939
0.0125736
0.0125736
0.0125736
0.0125736
0.0125736
0.0125736
0.000808939
0.000808939
0.000808939
-0.0109558
0.000808939
0.000808939
0.0125736
0.0125736
0.0125736
0.0125736
0.0125736
0.000808939
0.000808939
-0.0109558
-0.0344852
-0.0344852
-0.0344852
-0.0344852
-0.0109558
0.000808939
0.0125736
0.0125736
0.0125736
0.0125736
0.000808939
0.000808939
-0.0109558
-0.0109558
-0.0344852
-0.0344852
-0.0344852
-0.0344852
-0.0344852
-0.0344852
-0.0344852
-0.0344852
-0.0344852
-0.0344852
-0.0344852
-0.0344852
-0.0109558
-0.0109558
-0.0109558
0.000808939
0.000808939
-0.0109558
-0.0109558
-0.0344852
-0.0344852
-0.0344852
-0.0344852
-0.0344852
-0.0344852
-0.0344852
-0.0344852
-0.0344852
-0.0344852
-0.0344852
-0.0344852
-0.0344852
-0.0344852
-0.0344852
-0.0344852
-0.0109558
0.000808939
0.0125736
0.0204168
0.0204168
0.0204168
0.0204168
0.0125736
-0.0109558
-0.0109558
-0.0344852
-0.0344852
-0.0109558
0.000808939
0.0125736
0.0204168
0.0243383
0.0321815
0.0361031
0.0400246
0.0400246
0.0400246
0.0400246
0.0361031
0.0321815
0.0243383
0.0204168
0.0125736
0.000808939
-0.0109558
-0.0344852
-0.0344852
-0.0344852
-0.0344852
-0.0344852
-0.0109558
-0.0109558
-0.0109558
-0.0109558
-0.0344852
-0.0344852
-0.0344852
-0.0344852
-0.0344852
-0.0344852
-0.0344852
-0.0344852
-0.0344852
-0.0344852
-0.0344852
-0.0344852
-0.0344852
-0.0344852
-0.0344852
-0.0344852
-0.0344852
-0.0344852
-0.0344852
-0.0344852
-0.0344852
-0.0344852
-0.0344852
-0.0344852
-0.0344852
-0.0344852
-0.0344852
-0.0344852
-0.0344852
-0.0344852
-0.0109558
-0.0109558
0.000808939
